net
{
	propagationenginegenerator1791944048146838126L = "edu.ucla.belief.approx.BeliefPropagationSettings@2435f626";
	recoveryenginegenerator6944530267470113528l = "edu.ucla.util.SettingsImpl@42b56c73";
	node_size = (76.0 36.0);
	huginenginegenerator3061656038650325130L = "edu.ucla.belief.inference.JoinTreeSettings@1c17267e";
}

node PR
{
	states = ("positive" "negative" );
	position = (693 599);
	ismapvariable = "false";
	label = "Progesteron receptor";
	diagnosistype = "AUXILIARY";
	excludepolicy = "include whole CPT";
}
node Platelets
{
	states = ("lt_400" "ge_400" );
	position = (896 512);
	ismapvariable = "false";
	label = "Platelets";
	diagnosistype = "AUXILIARY";
	excludepolicy = "include whole CPT";
}
node Survival1yr
{
	states = ("yes" "no" );
	position = (393 75);
	ismapvariable = "false";
	label = "Survival 1yr";
	diagnosistype = "AUXILIARY";
	excludepolicy = "include whole CPT";
}
node LVSI
{
	states = ("no" "yes" );
	position = (483 223);
	ismapvariable = "false";
	label = "LVSI";
	diagnosistype = "AUXILIARY";
	excludepolicy = "include whole CPT";
}
node LNM
{
	states = ("no" "yes" );
	position = (640 380);
	ismapvariable = "false";
	label = "Lymph node metastasis";
	diagnosistype = "AUXILIARY";
	excludepolicy = "include whole CPT";
}
node CA125
{
	states = ("lt_35" "ge_35" );
	position = (897 313);
	ismapvariable = "false";
	label = "CA125";
	diagnosistype = "AUXILIARY";
	excludepolicy = "include whole CPT";
}
node Histology
{
	states = ("grade_1" "grade_2" "grade_3" );
	position = (287 383);
	ismapvariable = "false";
	label = "Postoperative grade";
	diagnosistype = "AUXILIARY";
	excludepolicy = "include whole CPT";
}
node p53
{
	states = ("wildtype" "mutant" );
	position = (276 603);
	ismapvariable = "false";
	label = "p53";
	diagnosistype = "AUXILIARY";
	excludepolicy = "include whole CPT";
}
node PrimaryTumor
{
	states = ("grade_1" "grade_2" "grade_3" );
	position = (77 288);
	ismapvariable = "false";
	label = "Preoperative grade";
	diagnosistype = "AUXILIARY";
	excludepolicy = "include whole CPT";
}
node Therapy
{
	states = ("no" "radiotx" "chemotx" "chemoradiotx" );
	position = (174 192);
	ismapvariable = "false";
	label = "Adjuvant therapy";
	diagnosistype = "AUXILIARY";
	excludepolicy = "include whole CPT";
}
node Survival3yr
{
	states = ("yes" "no" );
	position = (725 85);
	ismapvariable = "false";
	label = "Survival 3yr";
	diagnosistype = "AUXILIARY";
	excludepolicy = "include whole CPT";
}
node L1CAM
{
	states = ("negative" "positive" );
	position = (485 602);
	ismapvariable = "false";
	label = "L1CAM";
	diagnosistype = "AUXILIARY";
	excludepolicy = "include whole CPT";
}
node MyometrialInvasion
{
	states = ("no" "lt_50" "ge_50" );
	position = (75 576);
	ismapvariable = "false";
	label = "Myometrial invasion";
	diagnosistype = "AUXILIARY";
	excludepolicy = "include whole CPT";
}
node ER
{
	states = ("positive" "negative" );
	position = (894 601);
	ismapvariable = "false";
	label = "Estrogen receptor";
	diagnosistype = "AUXILIARY";
	excludepolicy = "include whole CPT";
}
node Recurrence
{
	states = ("no" "regional_distant" "local" );
	position = (804 208);
	ismapvariable = "false";
	label = "Recurrence";
	diagnosistype = "AUXILIARY";
	excludepolicy = "include whole CPT";
}
node Cytology
{
	states = ("no" "yes" );
	position = (77 428);
	ismapvariable = "false";
	label = "Endometrium in cervical cytology";
	diagnosistype = "AUXILIARY";
	excludepolicy = "include whole CPT";
}
node Survival5yr
{
	states = ("yes" "no" );
	position = (903 -18);
	ismapvariable = "false";
	label = "Survival 5yr";
	diagnosistype = "AUXILIARY";
	excludepolicy = "include whole CPT";
}
node CTMRI
{
	states = ("no" "yes" );
	position = (896 429);
	ismapvariable = "false";
	label = "Enlarged nodes CT";
	diagnosistype = "AUXILIARY";
	excludepolicy = "include whole CPT";
}
potential ( PR | ER Histology LNM )
{
	data = ((((	0.91447368	0.08552632	)
		(	1.0	0.0	))
		((	0.90079365	0.09920635	)
		(	0.94444444	0.05555556	))
		((	0.775	0.225	)
		(	0.8064516	0.1935484	)))
		(((	0.4545455	0.5454545	)
		(	0.5	0.5	))
		((	0.2222222	0.7777778	)
		(	0.0	1.0	))
		((	0.1333333	0.8666667	)
		(	0.0625	0.9375	))));
}
potential ( Platelets | LNM )
{
	data = ((	0.96978417	0.03021583	)
		(	0.94117647	0.05882353	));
}
potential ( Survival1yr | Recurrence Therapy Survival3yr )
{
	data = ((((	1.0	0.0	)
		(	0.5	0.5	))
		((	1.0	0.0	)
		(	0.7	0.3	))
		((	1.0	0.0	)
		(	0.6	0.4	))
		((	1.0	0.0	)
		(	0.75	0.25	)))
		(((	1.0	0.0	)
		(	0.54166665	0.45833335	))
		((	1.0	0.0	)
		(	0.52272725	0.47727275	))
		((	1.0	0.0	)
		(	0.57142855	0.42857144999999996	))
		((	1.0	0.0	)
		(	0.58333335	0.41666665	)))
		(((	1.0	0.0	)
		(	0.6	0.4	))
		((	1.0	0.0	)
		(	0.6	0.4	))
		((	1.0	0.0	)
		(	0.6	0.4	))
		((	1.0	0.0	)
		(	0.6	0.4	))));
}
potential ( LVSI | Cytology Histology Therapy )
{
	data = ((((	0.96585366	0.03414634	)
		(	0.875	0.125	)
		(	0.0	1.0	)
		(	0.75	0.25	))
		((	0.91194969	0.08805031	)
		(	0.8971963	0.1028037	)
		(	1.0	0.0	)
		(	0.4285714	0.5714286	))
		((	0.6666667	0.3333333	)
		(	0.7258065	0.2741935	)
		(	0.3333333	0.6666667	)
		(	0.3636364	0.6363636	)))
		(((	1.0	0.0	)
		(	1.0	0.0	)
		(	0.5	0.5	)
		(	0.5	0.5	))
		((	1.0	0.0	)
		(	0.6	0.4	)
		(	1.0	0.0	)
		(	0.0	1.0	))
		((	0.1428571	0.8571429	)
		(	0.25	0.75	)
		(	0.0	1.0	)
		(	1.0	0.0	))));
}
potential ( LNM | Histology LVSI MyometrialInvasion Therapy )
{
	data = (((((	1.0	0.0	)
		(	1.0	0.0	)
		(	0.5	0.5	)
		(	0.5	0.5	))
		((	1.0	0.0	)
		(	1.0	0.0	)
		(	0.5	0.5	)
		(	1.0	0.0	))
		((	1.0	0.0	)
		(	0.97297297	0.02702703	)
		(	0.5	0.5	)
		(	0.5	0.5	)))
		(((	0.5	0.5	)
		(	0.5	0.5	)
		(	0.5	0.5	)
		(	0.5	0.5	))
		((	1.0	0.0	)
		(	1.0	0.0	)
		(	0.5	0.5	)
		(	0.0	1.0	))
		((	0.5	0.5	)
		(	1.0	0.0	)
		(	1.0	0.0	)
		(	0.5	0.5	))))
		((((	1.0	0.0	)
		(	1.0	0.0	)
		(	0.5	0.5	)
		(	0.5	0.5	))
		((	1.0	0.0	)
		(	0.94736842	0.05263158	)
		(	0.3333333	0.6666667	)
		(	1.0	0.0	))
		((	0.97297297	0.02702703	)
		(	0.95	0.05	)
		(	0.3333333	0.6666667	)
		(	1.0	0.0	)))
		(((	0.5	0.5	)
		(	0.5	0.5	)
		(	0.5	0.5	)
		(	0.5	0.5	))
		((	0.6666667	0.3333333	)
		(	1.0	0.0	)
		(	0.5	0.5	)
		(	0.6666667	0.3333333	))
		((	0.8	0.2	)
		(	0.5	0.5	)
		(	0.5	0.5	)
		(	0.75	0.25	))))
		((((	1.0	0.0	)
		(	0.5	0.5	)
		(	0.5	0.5	)
		(	0.5	0.5	))
		((	1.0	0.0	)
		(	1.0	0.0	)
		(	0.0	1.0	)
		(	1.0	0.0	))
		((	1.0	0.0	)
		(	0.93103448	0.06896552	)
		(	0.6	0.4	)
		(	0.5	0.5	)))
		(((	1.0	0.0	)
		(	0.5	0.5	)
		(	0.5	0.5	)
		(	0.5	0.5	))
		((	0.5714286	0.4285714	)
		(	1.0	0.0	)
		(	0.6666667	0.3333333	)
		(	1.0	0.0	))
		((	0.0	1.0	)
		(	0.8666667	0.1333333	)
		(	0.06666667	0.93333333	)
		(	0.25	0.75	)))));
}
potential ( CA125 | LNM )
{
	data = ((	0.8791367	0.1208633	)
		(	0.2794118	0.7205882	));
}
potential ( Histology | Cytology MyometrialInvasion PrimaryTumor )
{
	data = ((((	0.8222222	0.1777778	0.0	)
		(	0.1428571	0.8571429	0.0	)
		(	0.0	0.0	1.0	))
		((	0.68217054	0.31007752	0.00775194	)
		(	0.26086957	0.65217391	0.08695652	)
		(	0.09836066	0.21311475	0.68852459	))
		((	0.44274809	0.48091603	0.07633588	)
		(	0.17647058	0.61764704	0.20588238	)
		(	0.01470588	0.08823529	0.89705883	)))
		(((	1.0	0.0	0.0	)
		(	0.3333333333333333	0.3333333333333333	0.3333333333333333	)
		(	0.3333333333333333	0.3333333333333333	0.3333333333333333	))
		((	0.0	0.5	0.5	)
		(	0.0	0.6666667	0.3333333	)
		(	0.0	0.3333333	0.6666667	))
		((	0.25	0.5	0.25	)
		(	0.0	0.5714286	0.4285714	)
		(	0.0	0.0	1.0	))));
}
potential ( p53 | Histology L1CAM LNM )
{
	data = ((((	0.94771242	0.05228758	)
		(	0.5	0.5	))
		((	0.8888889	0.1111111	)
		(	0.5	0.5	)))
		(((	0.90079365	0.09920635	)
		(	0.6666667	0.3333333	))
		((	0.6111111	0.3888889	)
		(	0.5	0.5	)))
		(((	0.7088608	0.2911392	)
		(	0.8275862	0.1724138	))
		((	0.2903226	0.7096774	)
		(	0.2222222	0.7777778	))));
}
potential ( PrimaryTumor | )
{
	data = (	0.5806029	0.231979	0.1874181	);
}
potential ( Therapy | Histology )
{
	data = ((	0.64984227	0.33123028	0.00630915	0.0126183	)
		(	0.5570934200000001	0.38754325000000006	0.020761250000000002	0.03460208000000001	)
		(	0.31210191	0.42038217	0.1910828	0.07643312	));
}
potential ( Survival3yr | Recurrence Therapy Survival5yr )
{
	data = ((((	1.0	0.0	)
		(	1.0	0.0	))
		((	1.0	0.0	)
		(	1.0	0.0	))
		((	1.0	0.0	)
		(	1.0	0.0	))
		((	1.0	0.0	)
		(	1.0	0.0	)))
		(((	1.0	0.0	)
		(	0.2	0.8	))
		((	1.0	0.0	)
		(	0.2666667	0.7333333	))
		((	1.0	0.0	)
		(	0.1764706	0.8235294	))
		((	1.0	0.0	)
		(	0.27	0.73	)))
		(((	1.0	0.0	)
		(	0.5	0.5	))
		((	1.0	0.0	)
		(	0.6	0.4	))
		((	1.0	0.0	)
		(	0.6	0.4	))
		((	1.0	0.0	)
		(	0.7	0.3	))));
}
potential ( L1CAM | Histology LNM PR )
{
	data = ((((	0.98939929	0.01060071	)
		(	0.8125	0.1875	))
		((	1.0	0.0	)
		(	0.5	0.5	)))
		(((	0.95238095	0.04761905	)
		(	0.8205128	0.1794872	))
		((	0.8235294	0.1764706	)
		(	0.5	0.5	)))
		(((	0.8484848	0.1515152	)
		(	0.5227273	0.4772727	))
		((	0.7692308	0.2307692	)
		(	0.4285714	0.5714286	))));
}
potential ( MyometrialInvasion | )
{
	data = (	0.07601573000000002	0.5517693300000001	0.37221494000000005	);
}
potential ( ER | Histology LNM )
{
	data = (((	0.96507937	0.03492063	)
		(	1.0	0.0	))
		((	0.93333333	0.06666667	)
		(	0.94736842	0.05263158	))
		((	0.7272727	0.2727273	)
		(	0.6595745	0.3404255	)));
}
potential ( Recurrence | CA125 Histology LNM LVSI )
{
	data = (((((	0.98127341	0.01872659	0.0	)
		(	1.0	0.0	0.0	))
		((	1.0	0.0	0.0	)
		(	0.3333333333333333	0.3333333333333333	0.3333333333333333	)))
		(((	0.9013452900000001	0.08071749000000002	0.017937220000000004	)
		(	0.7894737	0.2105263	0.0	))
		((	1.0	0.0	0.0	)
		(	1.0	0.0	0.0	)))
		(((	0.91935484	0.08064516	0.0	)
		(	0.5384615	0.4615385	0.0	))
		((	0.2	0.4	0.4	)
		(	0.4285714	0.5714286	0.0	))))
		((((	0.96153846	0.0	0.03846154	)
		(	0.25	0.75	0.0	))
		((	0.3333333333333333	0.3333333333333333	0.3333333333333333	)
		(	0.0	1.0	0.0	)))
		(((	0.7727272700000001	0.18181818000000002	0.04545455000000001	)
		(	0.6666667	0.3333333	0.0	))
		((	0.375	0.625	0.0	)
		(	0.8	0.0	0.2	)))
		(((	0.625	0.375	0.0	)
		(	0.6666667	0.3333333	0.0	))
		((	0.3333333	0.5	0.1666667	)
		(	0.4827586	0.5172414	0.0	)))));
}
potential ( Cytology | )
{
	data = (	0.96330275	0.03669725	);
}
potential ( Survival5yr | Recurrence Therapy )
{
	data = (((	0.99204244	0.00795756	)
		(	0.996	0.004	)
		(	1.0	0.0	)
		(	1.0	0.0	))
		((	0.5588235	0.4411765	)
		(	0.5	0.5	)
		(	0.1904762	0.8095238	)
		(	0.5555556	0.4444444	))
		((	0.6	0.4	)
		(	0.5	0.5	)
		(	0.4	0.6	)
		(	0.6	0.4	)));
}
potential ( CTMRI | CA125 LNM )
{
	data = (((	0.98854337	0.01145663	)
		(	0.8947368	0.1052632	))
		((	0.7857143	0.2142857	)
		(	0.7755102	0.2244898	)));
}
